/*!
 * The following copyright notice may not be removed under any circumstances.
 * 
 * Copyright:
 * © 2001 The FontSite. All Rights Reserved. www.fontsite.com
 * 
 * Trademark:
 * CombiNumerals is a trademark of Sean Cavanaugh & The FontSite.
 * 
 * Description:
 * CombiNumerals is a typeface for creating circled numbers popular for use in
 * CD/DVD labeling, web graphics, forms, maps, signs, guide books, questionnaires,
 * etc. Heres how it works:
 * 
 * Single-digit numbers  The numbers 1 through 9 and zero are located on the
 * qwertyuiop row of keys (respectively) on a US keyboard.
 * 
 * Double-digit numbers  The numbers 0 through 99 are created by first typing a
 * number, followed by Shift-number. For example, to create the number 69, press
 * and release the 6 key, then press Shift-9.
 * 
 * NOTE  Because double-digit numbers beginning with 1 can be problematic when it
 * comes to spacing, Ive provided alternates for the numbers 10 through 19 along
 * the asdfghjkl; row of keys (respectively) on a US keyboard. You can still type
 * them in the manner described above, but youll find the alternate versions a bit
 * more attractive.
 * 
 * Additional characters  Several characters besides numerals can be created,
 * e.g., arrows, hands, pointers, smiley faces, and more. Check your character map
 * for exact keyboard locations, or refer to the User Guide.
 * 
 * --------------------
 * CombiNumerals was designed and created by Sean Cavanaugh for The FontSite.
 * CombiNumerals is the freeware version of CombiNumerals Pro.
 * 
 * Manufacturer:
 * The FontSite
 * 
 * Designer:
 * Sean Cavanaugh
 * 
 * Vendor URL:
 * http://www.fontsite.com
 * 
 * License information:
 * mailto:info@fontsite.com
 */
Cufon.registerFont({"w":295,"face":{"font-family":"CombiNumerals","font-weight":400,"font-stretch":"normal","units-per-em":"360","panose-1":"2 11 5 3 3 4 3 2 2 4","ascent":"288","descent":"-72","x-height":"5","bbox":"-283 -265.167 283 72","underline-thickness":"7.2","underline-position":"-44.28","unicode-range":"U+0020-U+02DB"},"glyphs":{" ":{"w":147},"\u02db":{"w":147},"\u02dd":{"w":147},"\u00d2":{"w":147},"\ue01e":{"w":147},"\u00d4":{"w":147},"\u00d3":{"w":147},"\u00ce":{"w":147},"\u00cd":{"w":147},"\u00c8":{"w":147},"\u00cb":{"w":147},"\u00c2":{"w":147},"\u2030":{"w":147},"\ufb01":{"w":147},"\u203a":{"w":147},"\u25ca":{"w":147},"\u2014":{"w":147},"\u2013":{"w":147},"\u0153":{"w":147},"\u0152":{"w":147},"\u00d5":{"w":147},"\u00c3":{"w":147},"\u00c0":{"w":147},"\u2026":{"w":147},"\u00bb":{"w":147},"\u2248":{"w":147},"\u0192":{"w":147},"\u00f8":{"w":147},"\u00e6":{"w":147},"\u03a9":{"w":147},"\u00ba":{"w":147},"\u03c0":{"w":147},"\u220f":{"w":147},"\u2211":{"w":147},"\u00a5":{"w":147},"\u2265":{"w":147},"\u2264":{"w":147},"\u221e":{"w":147},"\u00d8":{"w":147},"\u2260":{"w":147},"\u00a8":{"w":147},"\u00ae":{"w":147},"\u00b6":{"w":147},"\u2020":{"w":147},"\u00fc":{"w":147},"\u00fb":{"w":147},"\u00f9":{"w":147},"\u00f6":{"w":147},"\u00f2":{"w":147},"\u00f3":{"w":147},"\u00f1":{"w":147},"\u00ea":{"w":147},"\u00e8":{"w":147},"\u00e9":{"w":147},"\u00e7":{"w":147},"\u00e4":{"w":147},"\u00e0":{"w":147},"\u00d6":{"w":147},"\u00c5":{"w":147},"\u00c4":{"w":147},"z":{"w":147},"x":{"w":147},"v":{"w":147},"n":{"w":147},"m":{"w":147},"c":{"w":147},"b":{"w":147},"`":{"w":147},"Z":{"w":147},"Y":{"w":147},"X":{"w":147},"W":{"w":147},"V":{"w":147},"U":{"w":147},"T":{"w":147},"S":{"w":147},"R":{"w":147},"Q":{"w":147},"P":{"w":147},"O":{"w":147},"N":{"w":147},"M":{"w":147},"L":{"w":147},"K":{"w":147},"J":{"w":147},"I":{"w":147},"H":{"w":147},"G":{"w":147},"F":{"w":147},"E":{"w":147},"D":{"w":147},"C":{"w":147},"B":{"w":147},"A":{"w":147},"=":{"w":147},":":{"w":147},"\/":{"w":147},".":{"w":147},"-":{"w":147},",":{"w":147},"+":{"w":147},"\n":{"w":147},"\u00a0":{"w":147},"\r":{"w":147},"\t":{"w":147},"!":{"d":"8,-174r33,-33r18,0r0,153r-25,0r0,-124r-17,21xm0,-265v119,-6,177,151,95,230v-22,22,-53,40,-95,40r0,-13v74,-3,122,-48,122,-122v0,-74,-48,-119,-122,-122r0,-13","w":147},"\"":{"d":"204,-210v5,-1,12,9,4,14r-45,56r27,55v-6,10,-13,26,-25,8r-23,-35r-44,65v-11,8,-27,-3,-20,-16v0,-30,36,-53,49,-75r-20,-57v3,-8,17,-11,24,-6r18,36r43,-46v4,2,9,8,12,1xm148,-8v74,0,122,-49,122,-122v0,-72,-48,-122,-122,-122v-75,0,-123,49,-123,122v0,73,48,122,123,122xm148,-265v81,0,135,54,135,135v0,81,-54,135,-135,135v-81,0,-135,-52,-135,-135v0,-83,54,-135,135,-135"},"#":{"d":"0,-265v119,-6,177,151,95,230v-22,22,-53,40,-95,40r0,-13v74,-3,122,-48,122,-122v0,-74,-48,-119,-122,-122r0,-13xm54,-133v45,14,28,82,-23,82v-19,0,-33,-3,-26,-27v15,12,49,9,49,-18v0,-21,-13,-28,-34,-27r0,-20v20,2,33,-5,33,-24v0,-26,-32,-25,-44,-14r-1,-21v27,-15,71,-3,71,34v0,18,-11,31,-25,35","w":147},"$":{"d":"49,-174r-25,67r25,0r0,-67xm0,-265v119,-6,177,151,95,230v-22,22,-53,40,-95,40r0,-13v74,-3,122,-48,122,-122v0,-74,-48,-119,-122,-122r0,-13xm73,-87r0,33r-24,0r0,-33r-49,0r0,-21r40,-99r33,0r0,100r16,0r0,20r-16,0","w":147},"%":{"d":"0,-265v119,-6,177,151,95,230v-22,22,-53,40,-95,40r0,-13v74,-3,122,-48,122,-122v0,-74,-48,-119,-122,-122r0,-13xm28,-150v33,-8,55,12,55,45v0,46,-43,66,-80,47r2,-23v20,14,56,6,52,-23v4,-28,-31,-34,-51,-23r0,-80r70,0r0,22r-48,0r0,35","w":147},"&":{"d":"40,-54r-28,0r43,-132r-51,0r0,-21r76,0r0,21xm0,-265v119,-6,177,151,95,230v-22,22,-53,40,-95,40r0,-13v74,-3,122,-48,122,-122v0,-74,-48,-119,-122,-122r0,-13","w":147},"'":{"d":"89,-69v-14,-33,-6,-107,23,-77v-1,15,-2,32,3,43v8,3,11,1,12,-5r66,-80v7,-5,13,-19,26,-15v0,0,4,25,-4,30r-91,111v-9,15,-29,8,-35,-7xm148,-8v74,0,122,-49,122,-122v0,-72,-48,-122,-122,-122v-75,0,-123,49,-123,122v0,73,48,122,123,122xm148,-265v81,0,135,54,135,135v0,81,-54,135,-135,135v-81,0,-135,-52,-135,-135v0,-83,54,-135,135,-135"},"(":{"d":"42,-189v-17,3,-19,57,0,60v21,-2,19,-59,0,-60xm0,-265v119,-6,177,151,95,230v-22,22,-53,40,-95,40r0,-13v74,-3,122,-48,122,-122v0,-74,-48,-119,-122,-122r0,-13xm42,-209v33,0,40,30,40,73v0,54,-24,100,-73,80v0,-5,1,-18,3,-21v27,19,49,-14,47,-46v-21,32,-58,3,-56,-35v2,-27,13,-51,39,-51","w":147},")":{"d":"48,-71v22,-13,21,-106,0,-118v-17,5,-15,32,-15,59v0,27,-2,54,15,59xm0,-265v119,-6,177,151,95,230v-22,22,-53,40,-95,40r0,-13v74,-3,122,-48,122,-122v0,-74,-48,-119,-122,-122r0,-13xm48,-209v58,0,57,158,0,158v-33,0,-41,-38,-41,-79v0,-41,7,-79,41,-79","w":147},"*":{"d":"47,-143v13,-6,22,-47,-3,-46v-15,0,-21,24,-11,35v4,4,9,8,14,11xm45,-71v24,-3,17,-48,-2,-52v-17,9,-20,48,2,52xm0,-265v119,-6,177,151,95,230v-22,22,-53,40,-95,40r0,-13v74,-3,122,-48,122,-122v0,-74,-48,-119,-122,-122r0,-13xm61,-135v38,12,30,89,-16,84v-45,5,-55,-69,-17,-82v-38,-13,-29,-81,17,-76v46,-5,53,63,16,74","w":147},"0":{"d":"98,-71v22,-13,22,-106,0,-118v-24,11,-23,106,0,118xm25,-130v0,73,48,119,123,122r0,13v-119,6,-177,-150,-96,-230v23,-22,54,-39,96,-40r0,13v-75,3,-123,49,-123,122xm98,-209v58,0,57,158,0,158v-33,0,-41,-38,-41,-79v0,-41,7,-79,41,-79","w":147},"1":{"d":"98,-54r0,-124v-7,6,-12,13,-17,21r-9,-17r32,-33r19,0r0,153r-25,0xm25,-130v0,73,48,119,123,122r0,13v-119,6,-177,-150,-96,-230v23,-22,54,-39,96,-40r0,13v-75,3,-123,49,-123,122","w":147},"2":{"d":"25,-130v0,73,48,119,123,122r0,13v-119,6,-177,-150,-96,-230v23,-22,54,-39,96,-40r0,13v-75,3,-123,49,-123,122xm137,-165v-4,42,-27,66,-44,92r47,0r0,19r-77,0v-2,-52,44,-60,48,-112v2,-30,-31,-25,-43,-12r-2,-21v25,-20,75,-9,71,34","w":147},"3":{"d":"25,-130v0,73,48,119,123,122r0,13v-119,6,-177,-150,-96,-230v23,-22,54,-39,96,-40r0,13v-75,3,-123,49,-123,122xm113,-133v43,13,27,82,-23,82v-19,0,-32,-3,-26,-27v15,12,51,8,49,-18v-1,-21,-12,-28,-34,-27r0,-20v20,2,33,-6,33,-24v0,-27,-32,-25,-44,-14r-1,-21v27,-15,71,-3,71,34v0,18,-11,31,-25,35","w":147},"4":{"d":"103,-174r-24,67r24,0r0,-67xm25,-130v0,73,48,119,123,122r0,13v-119,6,-177,-150,-96,-230v23,-22,54,-39,96,-40r0,13v-75,3,-123,49,-123,122xm127,-87r0,33r-24,0r0,-33r-49,0r0,-21r40,-99r33,0r0,100r16,0r0,20r-16,0","w":147},"5":{"d":"25,-130v0,73,48,119,123,122r0,13v-119,6,-177,-150,-96,-230v23,-22,54,-39,96,-40r0,13v-75,3,-123,49,-123,122xm91,-150v33,-8,54,12,54,45v0,46,-43,65,-79,47r1,-23v20,14,57,7,53,-23v3,-27,-31,-34,-52,-23r0,-80r71,0r0,22r-48,0r0,35","w":147},"6":{"d":"101,-131v-19,1,-20,59,0,60v19,-3,19,-57,0,-60xm25,-130v0,73,48,119,123,122r0,13v-119,6,-177,-150,-96,-230v23,-22,54,-39,96,-40r0,13v-75,3,-123,49,-123,122xm85,-137v20,-32,55,-4,55,35v0,28,-13,51,-39,51v-33,0,-40,-30,-40,-73v0,-55,24,-100,74,-80r-3,21v-27,-19,-51,11,-47,46","w":147},"7":{"d":"100,-54r-28,0r44,-132r-52,0r0,-21r76,0r0,21xm25,-130v0,73,48,119,123,122r0,13v-119,6,-177,-150,-96,-230v23,-22,54,-39,96,-40r0,13v-75,3,-123,49,-123,122","w":147},"8":{"d":"104,-143v13,-6,22,-46,-2,-46v-25,3,-18,42,2,46xm103,-71v22,-4,16,-48,-3,-52v-17,9,-20,49,3,52xm25,-130v0,73,48,119,123,122r0,13v-119,6,-177,-150,-96,-230v23,-22,54,-39,96,-40r0,13v-75,3,-123,49,-123,122xm118,-135v38,12,30,89,-16,84v-45,5,-55,-69,-17,-82v-37,-14,-30,-81,17,-76v47,-6,53,62,16,74","w":147},"9":{"d":"88,-159v0,28,23,42,27,12v2,-15,-1,-42,-13,-42v-10,0,-14,17,-14,30xm25,-130v0,73,48,119,123,122r0,13v-119,6,-177,-150,-96,-230v23,-22,54,-39,96,-40r0,13v-75,3,-123,49,-123,122xm102,-209v33,0,38,31,40,73v2,55,-24,100,-74,80r3,-21v27,18,51,-11,47,-46v-21,32,-55,4,-55,-35v0,-28,13,-51,39,-51","w":147},";":{"d":"181,-189v-19,3,-19,57,0,60v20,-2,18,-57,0,-60xm94,-54r0,-124v-8,7,-11,13,-17,21r-9,-17r33,-33r19,0r0,153r-26,0xm181,-209v33,0,38,31,40,73v2,55,-24,100,-74,80v0,-5,1,-18,3,-21v28,19,49,-14,47,-46v-21,32,-56,3,-56,-35v0,-28,14,-51,40,-51xm148,-8v74,0,122,-49,122,-122v0,-72,-48,-122,-122,-122v-75,0,-123,49,-123,122v0,73,48,122,123,122xm148,-265v81,0,135,54,135,135v0,81,-54,135,-135,135v-81,0,-135,-52,-135,-135v0,-83,54,-135,135,-135"},"<":{"d":"223,-150v11,0,20,9,20,20v0,11,-9,20,-20,20r-103,0v11,15,33,23,36,44v2,17,-22,26,-34,14r-68,-70v-2,-37,39,-46,54,-72v10,-17,45,-31,48,0v-4,21,-25,29,-36,44r103,0xm148,-8v74,0,122,-49,122,-122v0,-72,-48,-122,-122,-122v-75,0,-123,49,-123,122v0,73,48,122,123,122xm148,-265v81,0,135,54,135,135v0,81,-54,135,-135,135v-81,0,-135,-52,-135,-135v0,-83,54,-135,135,-135"},">":{"d":"145,-180v-15,-13,3,-44,21,-32v29,19,52,48,75,74v4,35,-39,46,-54,72v-10,17,-45,31,-48,0v4,-21,25,-29,36,-44r-103,0v-11,0,-19,-9,-19,-20v0,-11,8,-20,19,-20r103,0xm148,-8v74,0,122,-49,122,-122v0,-72,-48,-122,-122,-122v-75,0,-123,49,-123,122v0,73,48,122,123,122xm148,-265v81,0,135,54,135,135v0,81,-54,135,-135,135v-81,0,-135,-52,-135,-135v0,-83,54,-135,135,-135"},"?":{"d":"135,-54r0,-26r27,0r0,26r-27,0xm118,-202v28,-16,70,-4,68,32v-1,30,-26,39,-25,69v-2,6,-21,7,-24,0v-2,-29,21,-37,22,-67v1,-26,-28,-24,-39,-13xm148,-8v74,0,122,-49,122,-122v0,-72,-48,-122,-122,-122v-75,0,-123,49,-123,122v0,73,48,122,123,122xm148,-265v81,0,135,54,135,135v0,81,-54,135,-135,135v-81,0,-135,-52,-135,-135v0,-83,54,-135,135,-135"},"@":{"d":"0,-265v119,-6,177,151,95,230v-22,22,-53,40,-95,40r0,-13v74,-3,122,-48,122,-122v0,-74,-48,-119,-122,-122r0,-13xm37,-209v72,10,21,110,-7,136r48,0r0,19r-77,0v-2,-52,44,-60,48,-112v2,-30,-32,-25,-43,-12r-2,-21v6,-5,20,-12,33,-10","w":147},"[":{"d":"74,-130r112,-64r0,128xm148,-8v74,0,122,-49,122,-122v0,-72,-48,-122,-122,-122v-75,0,-123,49,-123,122v0,73,48,122,123,122xm148,-265v81,0,135,54,135,135v0,81,-54,135,-135,135v-81,0,-135,-52,-135,-135v0,-83,54,-135,135,-135"},"\\":{"d":"-67,-35r-173,-177r12,-13r173,177","w":0},"]":{"d":"109,-66r0,-128r112,64xm148,-8v74,0,122,-49,122,-122v0,-72,-48,-122,-122,-122v-75,0,-123,49,-123,122v0,73,48,122,123,122xm148,-265v81,0,135,54,135,135v0,81,-54,135,-135,135v-81,0,-135,-52,-135,-135v0,-83,54,-135,135,-135"},"^":{"d":"44,-71v19,-3,19,-57,0,-60v-19,0,-19,59,0,60xm0,-265v119,-6,177,151,95,230v-22,22,-53,40,-95,40r0,-13v74,-3,122,-48,122,-122v0,-74,-48,-119,-122,-122r0,-13xm28,-137v21,-32,56,-3,56,35v0,28,-14,51,-40,51v-33,0,-37,-31,-39,-73v-2,-56,23,-100,73,-80r-2,21v-15,-10,-37,-8,-42,13v-3,8,-6,20,-6,33","w":147},"_":{"d":"-13,72r-135,-34r-135,34r0,-16r102,-26r-102,-26r0,-17r135,34r135,-34r0,17r-101,26r101,26r0,16","w":0},"a":{"d":"182,-71v22,-13,21,-106,0,-118v-17,5,-15,32,-15,59v0,27,-2,54,15,59xm93,-54r0,-124v-7,6,-12,13,-17,21r-9,-17r33,-33r18,0r0,153r-25,0xm182,-209v33,0,40,39,40,79v0,41,-7,79,-40,79v-33,0,-41,-38,-41,-79v0,-41,7,-79,41,-79xm148,-8v74,0,122,-49,122,-122v0,-72,-48,-122,-122,-122v-75,0,-123,49,-123,122v0,73,48,122,123,122xm148,-265v81,0,135,54,135,135v0,81,-54,135,-135,135v-81,0,-135,-52,-135,-135v0,-83,54,-135,135,-135"},"d":{"d":"66,-174r33,-33r18,0r0,153r-25,0r0,-124v-7,6,-10,15,-17,21xm179,-209v72,10,21,110,-7,136r48,0r0,19r-77,0v-2,-52,45,-60,48,-112v2,-29,-31,-26,-43,-12r-2,-21v6,-5,20,-12,33,-10xm148,-8v74,0,122,-49,122,-122v0,-72,-48,-122,-122,-122v-75,0,-123,49,-123,122v0,73,48,122,123,122xm148,-265v81,0,135,54,135,135v0,81,-54,135,-135,135v-81,0,-135,-52,-135,-135v0,-83,54,-135,135,-135"},"e":{"d":"162,-133v45,14,28,82,-23,82v-19,0,-33,-3,-26,-27v15,12,51,8,49,-18v-1,-21,-12,-28,-34,-27r0,-20v20,2,33,-5,33,-24v0,-26,-32,-25,-44,-14r-1,-21v27,-15,71,-3,71,34v0,18,-11,31,-25,35xm148,-8v74,0,122,-49,122,-122v0,-72,-48,-122,-122,-122v-75,0,-123,49,-123,122v0,73,48,122,123,122xm148,-265v81,0,135,54,135,135v0,81,-54,135,-135,135v-81,0,-135,-52,-135,-135v0,-83,54,-135,135,-135"},"f":{"d":"95,-54r0,-124v-8,7,-11,13,-17,21r-9,-17r33,-33r18,0r0,153r-25,0xm190,-133v43,13,27,82,-23,82v-19,0,-32,-3,-26,-27v15,11,49,9,49,-18v0,-21,-13,-28,-34,-27r0,-20v20,2,33,-6,33,-24v0,-27,-32,-25,-44,-14r-1,-21v27,-15,71,-3,71,34v0,18,-11,31,-25,35xm148,-8v74,0,122,-49,122,-122v0,-72,-48,-122,-122,-122v-75,0,-123,49,-123,122v0,73,48,122,123,122xm148,-265v81,0,135,54,135,135v0,81,-54,135,-135,135v-81,0,-135,-52,-135,-135v0,-83,54,-135,135,-135"},"g":{"d":"183,-174r-24,67r24,0r0,-67xm65,-174r33,-33r19,0r0,153r-26,0r0,-124v-6,7,-12,13,-17,21xm207,-87r0,33r-24,0r0,-33r-49,0r0,-21r40,-99r33,0r0,100r15,0r0,20r-15,0xm148,-8v74,0,122,-49,122,-122v0,-72,-48,-122,-122,-122v-75,0,-123,49,-123,122v0,73,48,122,123,122xm148,-265v81,0,135,54,135,135v0,81,-54,135,-135,135v-81,0,-135,-52,-135,-135v0,-83,54,-135,135,-135"},"h":{"d":"91,-54r0,-124r-16,21r-9,-17r32,-33r19,0r0,153r-26,0xm166,-150v32,-8,54,12,54,45v0,45,-43,66,-79,47r1,-23v20,14,57,7,53,-23v3,-27,-31,-34,-52,-23r0,-80r71,0r0,22r-48,0r0,35xm148,-8v74,0,122,-49,122,-122v0,-72,-48,-122,-122,-122v-75,0,-123,49,-123,122v0,73,48,122,123,122xm148,-265v81,0,135,54,135,135v0,81,-54,135,-135,135v-81,0,-135,-52,-135,-135v0,-83,54,-135,135,-135"},"i":{"d":"149,-143v14,-5,23,-45,-2,-46v-24,3,-17,41,2,46xm148,-71v23,-3,17,-48,-3,-52v-17,9,-19,48,3,52xm164,-135v38,12,31,84,-16,84v-46,0,-56,-69,-17,-82v-38,-14,-30,-81,17,-76v46,-5,51,62,16,74xm148,-8v74,0,122,-49,122,-122v0,-72,-48,-122,-122,-122v-75,0,-123,49,-123,122v0,73,48,122,123,122xm148,-265v81,0,135,54,135,135v0,81,-54,135,-135,135v-81,0,-135,-52,-135,-135v0,-83,54,-135,135,-135"},"j":{"d":"179,-71v19,-3,19,-57,0,-60v-18,0,-20,59,0,60xm63,-174r33,-33r19,0r0,153r-26,0r0,-124r-17,21xm163,-137v20,-31,55,-4,55,35v0,28,-13,51,-39,51v-33,0,-39,-31,-40,-73v-2,-55,23,-100,74,-80r-3,21v-27,-19,-52,12,-47,46xm148,-8v74,0,122,-49,122,-122v0,-72,-48,-122,-122,-122v-75,0,-123,49,-123,122v0,73,48,122,123,122xm148,-265v81,0,135,54,135,135v0,81,-54,135,-135,135v-81,0,-135,-52,-135,-135v0,-83,54,-135,135,-135"},"k":{"d":"95,-54r0,-124v-8,7,-11,13,-17,21r-9,-17r33,-33r18,0r0,153r-25,0xm177,-54r-27,0r43,-132r-51,0r0,-21r76,0r0,21xm148,-8v74,0,122,-49,122,-122v0,-72,-48,-122,-122,-122v-75,0,-123,49,-123,122v0,73,48,122,123,122xm148,-265v81,0,135,54,135,135v0,81,-54,135,-135,135v-81,0,-135,-52,-135,-135v0,-83,54,-135,135,-135"},"l":{"d":"180,-143v13,-6,22,-47,-3,-46v-15,0,-21,24,-11,35v4,4,9,8,14,11xm179,-71v25,-4,15,-48,-3,-52v-17,9,-20,49,3,52xm89,-54r0,-124v-7,6,-12,13,-17,21r-9,-17r32,-33r19,0r0,153r-25,0xm194,-135v38,12,30,89,-16,84v-45,5,-55,-69,-17,-82v-37,-14,-30,-81,18,-76v46,-5,51,63,15,74xm148,-8v74,0,122,-49,122,-122v0,-72,-48,-122,-122,-122v-75,0,-123,49,-123,122v0,73,48,122,123,122xm148,-265v81,0,135,54,135,135v0,81,-54,135,-135,135v-81,0,-135,-52,-135,-135v0,-83,54,-135,135,-135"},"o":{"d":"149,-129v19,-2,19,-58,0,-60v-19,3,-19,57,0,60xm149,-209v33,0,38,31,40,73v2,55,-24,100,-74,80r3,-21v28,19,49,-14,47,-46v-21,32,-56,3,-56,-35v0,-28,14,-51,40,-51xm148,-8v74,0,122,-49,122,-122v0,-72,-48,-122,-122,-122v-75,0,-123,49,-123,122v0,73,48,122,123,122xm148,-265v81,0,135,54,135,135v0,81,-54,135,-135,135v-81,0,-135,-52,-135,-135v0,-83,54,-135,135,-135"},"p":{"d":"148,-71v22,-13,21,-106,0,-118v-24,10,-23,106,0,118xm148,-209v33,0,40,39,40,79v0,41,-7,79,-40,79v-33,0,-41,-38,-41,-79v0,-41,7,-79,41,-79xm148,-8v74,0,122,-49,122,-122v0,-72,-48,-122,-122,-122v-75,0,-123,49,-123,122v0,73,48,122,123,122xm148,-265v81,0,135,54,135,135v0,81,-54,135,-135,135v-81,0,-135,-52,-135,-135v0,-83,54,-135,135,-135"},"q":{"d":"114,-174r33,-33r19,0r0,153r-26,0r0,-124r-17,21xm148,-8v74,0,122,-49,122,-122v0,-72,-48,-122,-122,-122v-75,0,-123,49,-123,122v0,73,48,122,123,122xm148,-265v81,0,135,54,135,135v0,81,-54,135,-135,135v-81,0,-135,-52,-135,-135v0,-83,54,-135,135,-135"},"r":{"d":"149,-174r-24,67r24,0r0,-67xm173,-87r0,33r-24,0r0,-33r-49,0r0,-21r40,-99r33,0r0,100r16,0r0,20r-16,0xm148,-8v74,0,122,-49,122,-122v0,-72,-48,-122,-122,-122v-75,0,-123,49,-123,122v0,73,48,122,123,122xm148,-265v81,0,135,54,135,135v0,81,-54,135,-135,135v-81,0,-135,-52,-135,-135v0,-83,54,-135,135,-135"},"s":{"d":"74,-174r33,-33r18,0r0,153r-25,0r0,-124v-7,7,-12,13,-17,21xm175,-54r0,-124v-8,7,-11,13,-17,21r-9,-17r32,-33r19,0r0,153r-25,0xm148,-8v74,0,122,-49,122,-122v0,-72,-48,-122,-122,-122v-75,0,-123,49,-123,122v0,73,48,122,123,122xm148,-265v81,0,135,54,135,135v0,81,-54,135,-135,135v-81,0,-135,-52,-135,-135v0,-83,54,-135,135,-135"},"t":{"d":"137,-150v32,-9,55,13,55,45v0,47,-42,65,-80,47r2,-23v19,14,56,6,52,-23v3,-26,-31,-34,-51,-23r0,-80r70,0r0,22r-48,0r0,35xm148,-8v74,0,122,-49,122,-122v0,-72,-48,-122,-122,-122v-75,0,-123,49,-123,122v0,73,48,122,123,122xm148,-265v81,0,135,54,135,135v0,81,-54,135,-135,135v-81,0,-135,-52,-135,-135v0,-83,54,-135,135,-135"},"u":{"d":"145,-54r-27,0r43,-132r-51,0r0,-21r76,0r0,21xm148,-8v74,0,122,-49,122,-122v0,-72,-48,-122,-122,-122v-75,0,-123,49,-123,122v0,73,48,122,123,122xm148,-265v81,0,135,54,135,135v0,81,-54,135,-135,135v-81,0,-135,-52,-135,-135v0,-83,54,-135,135,-135"},"w":{"d":"146,-209v72,10,21,110,-7,136r47,0r0,19r-76,0v-2,-52,44,-60,48,-112v2,-30,-32,-25,-43,-12r-2,-21v6,-5,20,-12,33,-10xm148,-8v74,0,122,-49,122,-122v0,-72,-48,-122,-122,-122v-75,0,-123,49,-123,122v0,73,48,122,123,122xm148,-265v81,0,135,54,135,135v0,81,-54,135,-135,135v-81,0,-135,-52,-135,-135v0,-83,54,-135,135,-135"},"y":{"d":"145,-131v-18,0,-21,59,0,60v19,-3,19,-57,0,-60xm129,-137v22,-31,55,-4,55,35v0,28,-13,51,-39,51v-33,0,-40,-30,-40,-73v0,-55,24,-100,74,-80r-3,21v-27,-19,-51,11,-47,46xm148,-8v74,0,122,-49,122,-122v0,-72,-48,-122,-122,-122v-75,0,-123,49,-123,122v0,73,48,122,123,122xm148,-265v81,0,135,54,135,135v0,81,-54,135,-135,135v-81,0,-135,-52,-135,-135v0,-83,54,-135,135,-135"},"{":{"d":"53,-80r0,-100r19,0r0,50r85,-54r0,54r86,-54r0,108r-86,-54r0,54r-85,-54r0,50r-19,0xm148,-8v74,0,122,-49,122,-122v0,-72,-48,-122,-122,-122v-75,0,-123,49,-123,122v0,73,48,122,123,122xm148,-265v81,0,135,54,135,135v0,81,-54,135,-135,135v-81,0,-135,-52,-135,-135v0,-83,54,-135,135,-135"},"|":{"d":"135,-54r0,-26r26,0r0,26r-26,0xm158,-97r-20,0r-4,-110r28,0xm148,-8v74,0,122,-49,122,-122v0,-72,-48,-122,-122,-122v-75,0,-123,49,-123,122v0,73,48,122,123,122xm148,-265v81,0,135,54,135,135v0,81,-54,135,-135,135v-81,0,-135,-52,-135,-135v0,-83,54,-135,135,-135"},"}":{"d":"224,-80r0,-100r19,0r0,100r-19,0xm138,-76r0,-108r86,54xm53,-76r0,-108r85,54xm148,-8v74,0,122,-49,122,-122v0,-72,-48,-122,-122,-122v-75,0,-123,49,-123,122v0,73,48,122,123,122xm148,-265v81,0,135,54,135,135v0,81,-54,135,-135,135v-81,0,-135,-52,-135,-135v0,-83,54,-135,135,-135"},"~":{"d":"90,-76r0,-16r115,0r0,16r-115,0xm90,-106r58,-91r57,91r-115,0xm148,-8v74,0,122,-49,122,-122v0,-72,-48,-122,-122,-122v-75,0,-123,49,-123,122v0,73,48,122,123,122xm148,-265v81,0,135,54,135,135v0,81,-54,135,-135,135v-81,0,-135,-52,-135,-135v0,-83,54,-135,135,-135"}}});
